2 8 1
1.2013181447982788e+00
1.7100675404071808e-01
-4.7872480750083923e-01
-5.5674701929092407e-01
-1.8895293474197388e+00
-1.2165835499763489e-01
-6.7117685079574585e-01
-7.3783338069915771e-01
7.1024668216705322e-01
1.6716615855693817e-01
1.0738260746002197e+00
4.5150855183601379e-01
-3.3310589194297791e-01
-9.9303416907787323e-02
2.3639230430126190e-01
-1.4180555939674377e-02
1.0686826705932617e+00
2.3040039837360382e-01
-6.4990055561065674e-01
-7.0470422506332397e-01
1.6283532381057739e+00
1.2322249263525009e-01
-3.0378592014312744e-01
-4.7423878312110901e-01
3.0936199426651001e-01
3.7689036130905151e-01
-5.7273375988006592e-01
1.3019363582134247e-01
8.1015300750732422e-01
1.1066751480102539e+00
-1.1433665752410889e+00
-1.0121209925273433e-04
1.0725384950637817e+00
-8.8884286880493164e+00
-6.1265981197357178e-01
1.0843491554260254e+00
-7.6267313957214355e-01
9.9334776401519775e-02
-6.2018167972564697e-01
-3.0585849890485406e-04
2.8742823004722595e-01
-1.1128677129745483e+00
-5.3114980459213257e-01
1.0497040301561356e-01
-3.1323090195655823e-01
-3.8607919216156006e-01
-7.7877390384674072e-01
2.5250168982893229e-04
-4.5999062061309814e-01
-2.5611768722534180e+01
-1.1575745344161987e+00
-3.8567414879798889e-01
1.1770057678222656e+00
